digraph Tree {
node [shape=box, style="filled, rounded", color="black", fontname="helvetica"] ;
edge [fontname="helvetica"] ;
0 [label="Avg_years_schooling <= 0.507\nsquared_error = 1.94\nsamples = 528\nvalue = 8.759", fillcolor="#efb287"] ;
1 [label="Avg_years_schooling <= 0.373\nsquared_error = 1.198\nsamples = 135\nvalue = 7.49", fillcolor="#f9e4d5"] ;
0 -> 1 [labeldistance=2.5, labelangle=45, headlabel="True"] ;
2 [label="squared_error = 0.556\nsamples = 63\nvalue = 6.811", fillcolor="#ffffff"] ;
1 -> 2 ;
3 [label="squared_error = 1.005\nsamples = 72\nvalue = 8.083", fillcolor="#f5cdb0"] ;
1 -> 3 ;
4 [label="Avg_years_schooling <= 0.768\nsquared_error = 1.452\nsamples = 393\nvalue = 9.195", fillcolor="#eca16c"] ;
0 -> 4 [labeldistance=2.5, labelangle=-45, headlabel="False"] ;
5 [label="squared_error = 1.334\nsamples = 272\nvalue = 8.83", fillcolor="#efb082"] ;
4 -> 5 ;
6 [label="squared_error = 0.743\nsamples = 121\nvalue = 10.016", fillcolor="#e58139"] ;
4 -> 6 ;
}